digraph Tree {
node [shape=box, style="filled, rounded", color="black", fontname="helvetica"] ;
edge [fontname="helvetica"] ;
0 [label="Age <= 0.5\ngini = 0.48\nsamples = 20\nvalue = [8, 12]\nclass = Buys_computer=No", fillcolor="#bddef6"] ;
1 [label="Student <= 0.5\ngini = 0.375\nsamples = 8\nvalue = [6, 2]\nclass = Buys_computer=Yes", fillcolor="#eeab7b"] ;
0 -> 1 [labeldistance=2.5, labelangle=45, headlabel="True"] ;
2 [label="gini = 0.0\nsamples = 6\nvalue = [6, 0]\nclass = Buys_computer=Yes", fillcolor="#e58139"] ;
1 -> 2 ;
3 [label="gini = 0.0\nsamples = 2\nvalue = [0, 2]\nclass = Buys_computer=No", fillcolor="#399de5"] ;
1 -> 3 ;
4 [label="Credit_rating <= 0.5\ngini = 0.278\nsamples = 12\nvalue = [2, 10]\nclass = Buys_computer=No", fillcolor="#61b1ea"] ;
0 -> 4 [labeldistance=2.5, labelangle=-45, headlabel="False"] ;
5 [label="gini = 0.0\nsamples = 6\nvalue = [0, 6]\nclass = Buys_computer=No", fillcolor="#399de5"] ;
4 -> 5 ;
6 [label="Age <= 1.5\ngini = 0.444\nsamples = 6\nvalue = [2, 4]\nclass = Buys_computer=No", fillcolor="#9ccef2"] ;
4 -> 6 ;
7 [label="gini = 0.0\nsamples = 3\nvalue = [0, 3]\nclass = Buys_computer=No", fillcolor="#399de5"] ;
6 -> 7 ;
8 [label="Income <= 0.5\ngini = 0.444\nsamples = 3\nvalue = [2, 1]\nclass = Buys_computer=Yes", fillcolor="#f2c09c"] ;
6 -> 8 ;
9 [label="gini = 0.0\nsamples = 1\nvalue = [1, 0]\nclass = Buys_computer=Yes", fillcolor="#e58139"] ;
8 -> 9 ;
10 [label="gini = 0.5\nsamples = 2\nvalue = [1, 1]\nclass = Buys_computer=Yes", fillcolor="#ffffff"] ;
8 -> 10 ;
}